Language model created by QuickLM on Tue May 22 04:35:40 EDT 2018
Copyright (c) 1996-2010 Carnegie Mellon University and Alexander I. Rudnicky

The model is in standard ARPA format, designed by Doug Paul while he was at MITRE.

The code that was used to produce this language model is available in Open Source.
Please visit http://www.speech.cs.cmu.edu/tools/ for more information

The (fixed) discount mass is 0.5. The backoffs are computed using the ratio method.
This model based on a corpus of 13 sentences and 18 words

\data\
ngram 1=18
ngram 2=29
ngram 3=30

\1-grams:
-0.9579 </s> -0.3010
-0.9579 <s> -0.2462
-2.0719 A -0.2973
-1.7709 BATTLE -0.2936
-2.0719 BREAK -0.2936
-1.7709 BROWSER -0.2503
-1.3729 CLOSE -0.2626
-1.7709 COMMAND -0.2936
-1.7709 FILE -0.2936
-1.7709 JARVIS -0.2503
-1.7709 MANAGER -0.2503
-1.7709 NET -0.2503
-1.3729 OPEN -0.2626
-2.0719 PROGRAM -0.2503
-1.7709 PROMPT -0.2503
-1.7709 STEAM -0.2503
-2.0719 TAKE -0.2973
-2.0719 TERMINATE -0.2973

\2-grams:
-0.7160 <s> CLOSE 0.0000
-1.4150 <s> JARVIS 0.0000
-0.7160 <s> OPEN 0.0000
-1.4150 <s> TAKE 0.0000
-1.4150 <s> TERMINATE 0.0000
-0.3010 A BREAK 0.0000
-0.3010 BATTLE NET 0.0000
-0.3010 BREAK JARVIS 0.0000
-0.3010 BROWSER </s> -0.3010
-1.0000 CLOSE BATTLE 0.0000
-1.0000 CLOSE BROWSER 0.0000
-1.0000 CLOSE COMMAND 0.0000
-1.0000 CLOSE FILE 0.0000
-1.0000 CLOSE STEAM 0.0000
-0.3010 COMMAND PROMPT 0.0000
-0.3010 FILE MANAGER 0.0000
-0.3010 JARVIS </s> -0.3010
-0.3010 MANAGER </s> -0.3010
-0.3010 NET </s> -0.3010
-1.0000 OPEN BATTLE 0.0000
-1.0000 OPEN BROWSER 0.0000
-1.0000 OPEN COMMAND 0.0000
-1.0000 OPEN FILE 0.0000
-1.0000 OPEN STEAM 0.0000
-0.3010 PROGRAM </s> -0.3010
-0.3010 PROMPT </s> -0.3010
-0.3010 STEAM </s> -0.3010
-0.3010 TAKE A 0.0000
-0.3010 TERMINATE PROGRAM 0.0000

\3-grams:
-1.0000 <s> CLOSE BATTLE
-1.0000 <s> CLOSE BROWSER
-1.0000 <s> CLOSE COMMAND
-1.0000 <s> CLOSE FILE
-1.0000 <s> CLOSE STEAM
-0.3010 <s> JARVIS </s>
-1.0000 <s> OPEN BATTLE
-1.0000 <s> OPEN BROWSER
-1.0000 <s> OPEN COMMAND
-1.0000 <s> OPEN FILE
-1.0000 <s> OPEN STEAM
-0.3010 <s> TAKE A
-0.3010 <s> TERMINATE PROGRAM
-0.3010 A BREAK JARVIS
-0.3010 BATTLE NET </s>
-0.3010 BREAK JARVIS </s>
-0.3010 CLOSE BATTLE NET
-0.3010 CLOSE BROWSER </s>
-0.3010 CLOSE COMMAND PROMPT
-0.3010 CLOSE FILE MANAGER
-0.3010 CLOSE STEAM </s>
-0.3010 COMMAND PROMPT </s>
-0.3010 FILE MANAGER </s>
-0.3010 OPEN BATTLE NET
-0.3010 OPEN BROWSER </s>
-0.3010 OPEN COMMAND PROMPT
-0.3010 OPEN FILE MANAGER
-0.3010 OPEN STEAM </s>
-0.3010 TAKE A BREAK
-0.3010 TERMINATE PROGRAM </s>

\end\